<?xml version="1.0" encoding="UTF-8"?>
<!-- This network was created in GeNIe Academic, which can be used for academic teaching and research purposes only -->
<smile version="1.0" id="txdata" numsamples="10000" discsamples="10000">
	<nodes>
		<cpt id="discretize_sender_ratio">
			<state id="State0" />
			<state id="State1" />
			<state id="State2" />
			<probabilities>0.2859003886226545 0.6850087022864364 0.02909090909090909</probabilities>
		</cpt>
		<cpt id="sender_behavior">
			<state id="State1" />
			<state id="State2" />
			<state id="State3" />
			<state id="State4" />
			<state id="State5" />
			<parents>discretize_sender_ratio</parents>
			<probabilities>0.9955201675850935 0.001584453013462847 0.0007805515897901184 0.0009339933553044152 0.001180834456349154 0.002231710899464417 0.001070608659817927 0.3950142214141223 0.545555164190159 0.05612829483643633 6.556302245533519e-06 0.9999737747910177 6.556302245533519e-06 6.556302245533519e-06 6.556302245533519e-06</probabilities>
		</cpt>
		<cpt id="receiver_behavior">
			<state id="State1" />
			<state id="State2" />
			<state id="State3" />
			<state id="State4" />
			<state id="State5" />
			<probabilities>0.1690713587487781 0.182874853968481 0.1911155615954986 0.1941854421476766 0.2627527835395656</probabilities>
		</cpt>
		<cpt id="discretize_receiver_ratio">
			<state id="State0" />
			<state id="State1" />
			<state id="State2" />
			<parents>sender_behavior receiver_behavior</parents>
			<probabilities>0.9940931300074626 0.005899829623058617 7.040369478590235e-06 0.9946986865996049 0.005294686758644453 6.626641750493683e-06 0.9945621456321654 0.005431904855397099 5.94951243745575e-06 0.9945760856207616 0.005418328473595423 5.58590564288188e-06 0.9950213754075169 0.004974780094728425 3.844497754813311e-06 0.0159217341262229 0.07903318626510647 0.9050450796086706 0.01384943181818182 0.08114346590909091 0.9050071022727273 0.01195840554592721 0.08422876949740035 0.9038128249566725 0.01284490960989534 0.0683476054551221 0.9188074849349825 0.01223518749291945 0.07329783618443413 0.9144669763226465 0.0006271386646208551 0.9993667726104798 6.088724899231601e-06 0.0006865339015721625 0.9993081850684157 5.281030012093558e-06 0.0007757129304090629 0.9992187064010267 5.580668564093977e-06 0.0009486778637377907 0.9990446413062357 6.680830026322469e-06 0.001139005936994677 0.9988550924778394 5.901585165775526e-06 0.0007409421158961401 0.9992537273652844 5.330518819396691e-06 0.0006613963274276369 0.9993333958274745 5.207845097855408e-06 0.0006868450607486613 0.9993085140942464 4.640845005058522e-06 0.0008115437964515662 0.9991843156739748 4.140529573732481e-06 0.0006915140921744146 0.9993055432946675 2.942613158188999e-06 0.00970917225950783 0.9902460850111857 4.47427293064877e-05 0.00612815504232257 0.9938335439886627 3.830096901451606e-05 0.009692671394799056 0.990260047281324 4.728132387706857e-05 0.01012471811864329 0.9898292604353629 4.602144599383313e-05 0.008635578583765111 0.9913318343272395 3.258708899534004e-05</probabilities>
		</cpt>
		<cpt id="discretized_tx">
			<state id="State0" />
			<state id="State1" />
			<state id="State2" />
			<state id="State3" />
			<state id="State4" />
			<parents>discretize_receiver_ratio</parents>
			<probabilities>0.2890178925910727 0.7107599096529243 0.0002208632349457684 6.672605285370645e-07 6.672605285370645e-07 2.777978409551801e-07 0.0009892381116413964 0.5654563940729053 0.4317300693939007 0.001824020623711713 6.921133681697063e-06 6.921133681697063e-06 6.921133681697063e-06 6.921133681697063e-06 0.9999723154652732</probabilities>
		</cpt>
		<cpt id="timestamp_bin">
			<state id="State0" />
			<state id="State1" />
			<state id="State2" />
			<state id="State3" />
			<state id="State4" />
			<state id="State5" />
			<state id="State6" />
			<state id="State7" />
			<state id="State8" />
			<state id="State9" />
			<probabilities>0.09615335097632502 0.1008292206089216 0.1016589180554562 0.1021710416517655 0.09999952316238706 0.09462460958920439 0.1013852132656224 0.1020346660944615 0.1015797630117064 0.09956369358414992</probabilities>
		</cpt>
		<cpt id="fraud" target="true">
			<state id="State0" />
			<state id="State1" />
			<parents>sender_behavior discretized_tx discretize_receiver_ratio timestamp_bin</parents>
			<probabilities>0.998742770932864 0.001257229067136032 0.9990496555001188 0.000950344499881207 0.9988826815642459 0.00111731843575419 0.9992294991744634 0.0007705008255365987 0.9987953258643537 0.001204674135646308 0.9987370548118213 0.001262945188178833 0.9991101223581758 0.0008898776418242492 0.9997779011660189 0.0002220988339811216 0.9994375070311621 0.0005624929688378895 0.997787095271372 0.002212904728627999 0.5 0.5 0.5 0.5 0.5 0.5 0.5 0.5 0.5 0.5 0.5 0.5 0.5 0.5 0.5 0.5 0.5 0.5 0.5 0.5 0.5 0.5 0.5 0.5 0.5 0.5 0.5 0.5 0.5 0.5 0.5 0.5 0.5 0.5 0.5 0.5 0.5 0.5 0.5 0.5 0.9996468570275452 0.0003531429724548482 0.9992972922327369 0.0007027077672631876 0.9990343939672613 0.0009656060327386426 0.9993172507965408 0.0006827492034592626 0.9992425318373337 0.000757468162666288 0.9995984338921795 0.0004015661078204999 0.999534233814625 0.0004657661853749417 0.9995452685189397 0.0004547314810604338 0.9993974507531865 0.0006025492468134415 0.9997193901412403 0.0002806098587597044 0.992063492063492 0.007936507936507936 0.9918032786885247 0.00819672131147541 0.9918032786885247 0.00819672131147541 0.9923076923076923 0.007692307692307693 0.9939759036144579 0.006024096385542169 0.9936708860759493 0.006329113924050633 0.9941176470588236 0.005882352941176471 0.992063492063492 0.007936507936507936 0.9942528735632183 0.005747126436781609 0.9933333333333334 0.006666666666666667 0.5 0.5 0.5 0.5 0.5 0.5 0.5 0.5 0.5 0.5 0.5 0.5 0.5 0.5 0.5 0.5 0.5 0.5 0.5 0.5 0.5 0.5 0.5 0.5 0.5 0.5 0.5 0.5 0.5 0.5 0.5 0.5 0.5 0.5 0.5 0.5 0.5 0.5 0.5 0.5 0.9928571428571428 0.007142857142857143 0.9943820224719101 0.005617977528089887 0.9935897435897435 0.00641025641025641 0.9933333333333334 0.006666666666666667 0.9952380952380954 0.004761904761904762 0.9947916666666666 0.005208333333333333 0.9948453608247423 0.005154639175257732 0.9947916666666666 0.005208333333333333 0.994949494949495 0.005050505050505051 0.9947916666666666 0.005208333333333333 0.5 0.5 0.5 0.5 0.5 0.5 0.5 0.5 0.5 0.5 0.5 0.5 0.5 0.5 0.5 0.5 0.5 0.5 0.5 0.5 0.5 0.5 0.5 0.5 0.5 0.5 0.5 0.5 0.5 0.5 0.5 0.5 0.5 0.5 0.5 0.5 0.5 0.5 0.5 0.5 0.5 0.5 0.5 0.5 0.5 0.5 0.5 0.5 0.5 0.5 0.5 0.5 0.5 0.5 0.5 0.5 0.5 0.5 0.5 0.5 0.5 0.5 0.5 0.5 0.5 0.5 0.5 0.5 0.5 0.5 0.5 0.5 0.5 0.5 0.5 0.5 0.5 0.5 0.5 0.5 0.5 0.5 0.5 0.5 0.5 0.5 0.5 0.5 0.5 0.5 0.5 0.5 0.5 0.5 0.5 0.5 0.5 0.5 0.5 0.5 0.5 0.5 0.5 0.5 0.5 0.5 0.5 0.5 0.5 0.5 0.5 0.5 0.5 0.5 0.5 0.5 0.5 0.5 0.5 0.5 0.5 0.5 0.5 0.5 0.5 0.5 0.5 0.5 0.5 0.5 0.5 0.5 0.5 0.5 0.5 0.5 0.5 0.5 0.5 0.5 0.71875 0.28125 0.08333333333333333 0.9166666666666666 0.05555555555555555 0.9444444444444444 0.25 0.75 0.03125 0.96875 0.02777777777777778 0.9722222222222222 0.08333333333333333 0.9166666666666666 0.03846153846153846 0.9615384615384616 0.03846153846153846 0.9615384615384616 0.03333333333333333 0.9666666666666667 0.5 0.5 0.5 0.5 0.5 0.5 0.5 0.5 0.5 0.5 0.5 0.5 0.5 0.5 0.5 0.5 0.5 0.5 0.5 0.5 0.5 0.5 0.5 0.5 0.5 0.5 0.5 0.5 0.5 0.5 0.5 0.5 0.5 0.5 0.5 0.5 0.5 0.5 0.5 0.5 0.8518518518518519 0.1481481481481481 0.2352941176470588 0.7647058823529411 0.1111111111111111 0.8888888888888888 0.03125 0.96875 0.03333333333333333 0.9666666666666667 0.03846153846153846 0.9615384615384616 0.05 0.9500000000000001 0.02777777777777778 0.9722222222222222 0.03125 0.96875 0.04166666666666666 0.9583333333333333 0.5 0.5 0.5 0.5 0.5 0.5 0.5 0.5 0.5 0.5 0.5 0.5 0.5 0.5 0.5 0.5 0.5 0.5 0.5 0.5 0.5 0.5 0.5 0.5 0.5 0.5 0.5 0.5 0.5 0.5 0.5 0.5 0.5 0.5 0.5 0.5 0.5 0.5 0.5 0.5 0.9903846153846154 0.009615384615384616 0.9615384615384616 0.03846153846153846 0.8333333333333333 0.1666666666666667 0.5 0.5 0.5 0.5 0.5 0.5 0.75 0.25 0.5 0.5 0.5 0.5 0.5 0.5 0.9977477477477478 0.002252252252252252 0.9848484848484849 0.01515151515151515 0.9500000000000001 0.05 0.8333333333333333 0.1666666666666667 0.5 0.5 0.75 0.25 0.75 0.25 0.5 0.5 0.75 0.25 0.5 0.5 0.5 0.5 0.5 0.5 0.5 0.5 0.5 0.5 0.5 0.5 0.5 0.5 0.5 0.5 0.5 0.5 0.5 0.5 0.5 0.5 0.5 0.5 0.5 0.5 0.5 0.5 0.5 0.5 0.5 0.5 0.5 0.5 0.5 0.5 0.5 0.5 0.5 0.5 0.5 0.5 0.9992603550295858 0.0007396449704142012 0.9964028776978417 0.003597122302158274 0.9814814814814814 0.01851851851851852 0.9375 0.0625 0.8333333333333333 0.1666666666666667 0.875 0.125 0.8333333333333333 0.1666666666666667 0.5 0.5 0.5 0.5 0.5 0.5 0.5 0.5 0.5 0.5 0.5 0.5 0.5 0.5 0.5 0.5 0.5 0.5 0.5 0.5 0.5 0.5 0.5 0.5 0.5 0.5 0.5 0.5 0.5 0.5 0.5 0.5 0.5 0.5 0.5 0.5 0.5 0.5 0.5 0.5 0.5 0.5 0.5 0.5 0.5 0.5 0.9994305239179954 0.0005694760820045558 0.9986376021798364 0.001362397820163488 0.9910714285714285 0.008928571428571428 0.9500000000000001 0.05 0.8333333333333333 0.1666666666666667 0.75 0.25 0.75 0.25 0.8333333333333333 0.1666666666666667 0.5 0.5 0.5 0.5 0.9994535519125683 0.000546448087431694 0.9998047637641546 0.0001952362358453729 0.9998430634023855 0.0001569365976145637 0.9998419222257351 0.0001580777742649384 0.999845009299442 0.0001549907005579665 0.9998336106489185 0.0001663893510815308 0.9998441882206295 0.0001558117793705204 0.9998462957270211 0.0001537042729787888 0.999844816883923 0.0001551831160769708 0.9998420720151611 0.0001579279848389134 0.04166666666666666 0.9583333333333333 0.1 0.9 0.02272727272727273 0.9772727272727273 0.04166666666666666 0.9583333333333333 0.08333333333333333 0.9166666666666666 0.03846153846153846 0.9615384615384616 0.0625 0.9375 0.0625 0.9375 0.02777777777777778 0.9722222222222222 0.04166666666666666 0.9583333333333333 0.5 0.5 0.5 0.5 0.5 0.5 0.5 0.5 0.5 0.5 0.5 0.5 0.5 0.5 0.5 0.5 0.5 0.5 0.5 0.5 0.5 0.5 0.5 0.5 0.5 0.5 0.5 0.5 0.5 0.5 0.5 0.5 0.5 0.5 0.5 0.5 0.5 0.5 0.5 0.5 0.03571428571428571 0.9642857142857142 0.05555555555555555 0.9444444444444444 0.02173913043478261 0.9782608695652174 0.03125 0.96875 0.02941176470588235 0.9705882352941176 0.03846153846153846 0.9615384615384616 0.125 0.875 0.03571428571428571 0.9642857142857142 0.03846153846153846 0.9615384615384616 0.03333333333333333 0.9666666666666667 0.5 0.5 0.5 0.5 0.5 0.5 0.5 0.5 0.5 0.5 0.5 0.5 0.5 0.5 0.5 0.5 0.5 0.5 0.5 0.5 0.5 0.5 0.5 0.5 0.5 0.5 0.5 0.5 0.5 0.5 0.5 0.5 0.5 0.5 0.5 0.5 0.5 0.5 0.5 0.5 0.5 0.5 0.5 0.5 0.5 0.5 0.5 0.5 0.5 0.5 0.5 0.5 0.5 0.5 0.5 0.5 0.5 0.5 0.5 0.5 0.5 0.5 0.5 0.5 0.5 0.5 0.5 0.5 0.5 0.5 0.5 0.5 0.5 0.5 0.5 0.5 0.5 0.5 0.5 0.5 0.5 0.5 0.5 0.5 0.5 0.5 0.5 0.5 0.5 0.5 0.5 0.5 0.5 0.5 0.5 0.5 0.5 0.5 0.5 0.5 0.5 0.5 0.5 0.5 0.5 0.5 0.5 0.5 0.5 0.5 0.5 0.5 0.5 0.5 0.5 0.5 0.5 0.5 0.5 0.5 0.9999812993230354 1.870067696450611e-05 0.9999826388888889 1.736111111111111e-05 0.9999826551496861 1.734485031394179e-05 0.9999826310487373 1.736895126272276e-05 0.9999826599618519 1.734003814808392e-05 0.9999814553816483 1.854461835175432e-05 0.9999826569545611 1.734304543877905e-05 0.9999826262205079 1.737377949199069e-05 0.9999826304453554 1.736955464461891e-05 0.9999823937462586 1.760625374132892e-05 0.5 0.5 0.5 0.5 0.5 0.5 0.5 0.5 0.5 0.5 0.5 0.5 0.5 0.5 0.5 0.5 0.5 0.5 0.5 0.5 0.5 0.5 0.5 0.5 0.5 0.5 0.5 0.5 0.5 0.5 0.5 0.5 0.5 0.5 0.5 0.5 0.5 0.5 0.5 0.5 0.5 0.5 0.5 0.5 0.5 0.5 0.5 0.5 0.5 0.5 0.5 0.5 0.5 0.5 0.5 0.5 0.5 0.5 0.5 0.5 0.5 0.5 0.5 0.5 0.5 0.5 0.5 0.5 0.5 0.5 0.5 0.5 0.5 0.5 0.5 0.5 0.5 0.5 0.5 0.5 0.02380952380952381 0.9761904761904762 0.07142857142857142 0.9285714285714285 0.02631578947368421 0.9736842105263157 0.05555555555555555 0.9444444444444444 0.02 0.98 0.03125 0.96875 0.05 0.9500000000000001 0.03846153846153846 0.9615384615384616 0.05555555555555555 0.9444444444444444 0.05555555555555555 0.9444444444444444 0.5 0.5 0.5 0.5 0.5 0.5 0.5 0.5 0.5 0.5 0.5 0.5 0.5 0.5 0.5 0.5 0.5 0.5 0.5 0.5 0.5 0.5 0.5 0.5 0.5 0.5 0.5 0.5 0.5 0.5 0.5 0.5 0.5 0.5 0.5 0.5 0.5 0.5 0.5 0.5 0.03125 0.96875 0.02631578947368421 0.9736842105263157 0.03846153846153846 0.9615384615384616 0.01923076923076923 0.9807692307692308 0.03571428571428571 0.9642857142857142 0.02777777777777778 0.9722222222222222 0.03846153846153846 0.9615384615384616 0.05 0.9500000000000001 0.03571428571428571 0.9642857142857142 0.02631578947368421 0.9736842105263157 0.5 0.5 0.5 0.5 0.5 0.5 0.5 0.5 0.5 0.5 0.5 0.5 0.5 0.5 0.5 0.5 0.5 0.5 0.5 0.5 0.5 0.5 0.5 0.5 0.5 0.5 0.5 0.5 0.5 0.5 0.5 0.5 0.5 0.5 0.5 0.5 0.5 0.5 0.5 0.5 0.5 0.5 0.5 0.5 0.5 0.5 0.5 0.5 0.5 0.5 0.5 0.5 0.5 0.5 0.5 0.5 0.5 0.5 0.5 0.5 0.9999873225152129 1.267748478701826e-05 0.99998742359836 1.257640163996277e-05 0.9999872883510449 1.271164895510246e-05 0.9999874696138136 1.253038618650227e-05 0.9999871962305703 1.280376942972011e-05 0.999986552994648 1.344700535190813e-05 0.9999873180134936 1.268198650636636e-05 0.9999873516986668 1.264830133313096e-05 0.999987426128505 1.257387149503332e-05 0.9999870072499546 1.299275004547463e-05 0.5 0.5 0.5 0.5 0.5 0.5 0.5 0.5 0.5 0.5 0.5 0.5 0.5 0.5 0.5 0.5 0.5 0.5 0.5 0.5 0.5 0.5 0.5 0.5 0.5 0.5 0.5 0.5 0.5 0.5 0.5 0.5 0.5 0.5 0.5 0.5 0.5 0.5 0.5 0.5 0.5 0.5 0.5 0.5 0.5 0.5 0.5 0.5 0.5 0.5 0.5 0.5 0.5 0.5 0.5 0.5 0.5 0.5 0.5 0.5 0.5 0.5 0.5 0.5 0.5 0.5 0.5 0.5 0.5 0.5 0.5 0.5 0.5 0.5 0.5 0.5 0.5 0.5 0.5 0.5 0.5 0.5 0.5 0.5 0.5 0.5 0.5 0.5 0.5 0.5 0.5 0.5 0.5 0.5 0.5 0.5 0.5 0.5 0.5 0.5 0.5 0.5 0.5 0.5 0.5 0.5 0.5 0.5 0.5 0.5 0.5 0.5 0.5 0.5 0.5 0.5 0.5 0.5 0.5 0.5 0.5 0.5 0.5 0.5 0.5 0.5 0.5 0.5 0.5 0.5 0.5 0.5 0.5 0.5 0.5 0.5 0.5 0.5 0.5 0.5 0.01724137931034483 0.9827586206896551 0.05 0.9500000000000001 0.03125 0.96875 0.04166666666666666 0.9583333333333333 0.02777777777777778 0.9722222222222222 0.02 0.98 0.03125 0.96875 0.04545454545454546 0.9545454545454546 0.02777777777777778 0.9722222222222222 0.02777777777777778 0.9722222222222222 0.5 0.5 0.5 0.5 0.5 0.5 0.5 0.5 0.5 0.5 0.5 0.5 0.5 0.5 0.5 0.5 0.5 0.5 0.5 0.5 0.5 0.5 0.5 0.5 0.5 0.5 0.5 0.5 0.5 0.5 0.5 0.5 0.5 0.5 0.5 0.5 0.5 0.5 0.5 0.5 0.03571428571428571 0.9642857142857142 0.03125 0.96875 0.01666666666666667 0.9833333333333333 0.01785714285714286 0.9821428571428571 0.03846153846153846 0.9615384615384616 0.02173913043478261 0.9782608695652174 0.03571428571428571 0.9642857142857142 0.02941176470588235 0.9705882352941176 0.02631578947368421 0.9736842105263157 0.01851851851851852 0.9814814814814814 0.5 0.5 0.5 0.5 0.5 0.5 0.5 0.5 0.5 0.5 0.5 0.5 0.5 0.5 0.5 0.5 0.5 0.5 0.5 0.5 0.5 0.5 0.5 0.5 0.5 0.5 0.5 0.5 0.5 0.5 0.5 0.5 0.5 0.5 0.5 0.5 0.5 0.5 0.5 0.5 0.5 0.5 0.5 0.5 0.5 0.5 0.5 0.5 0.5 0.5 0.5 0.5 0.5 0.5 0.5 0.5 0.5 0.5 0.5 0.5 0.9996309963099631 0.0003690036900369004 0.9996423462088698 0.000357653791130186 0.999648629655657 0.0003513703443429375 0.9996350364963503 0.000364963503649635 0.9996478873239437 0.000352112676056338 0.9996446339729922 0.000355366027007818 0.9996568291008923 0.0003431708991077557 0.9996558843771507 0.0003441156228492773 0.9996463932107497 0.0003536067892503536 0.9996405463695184 0.0003594536304816679 0.5 0.5 0.5 0.5 0.5 0.5 0.5 0.5 0.5 0.5 0.5 0.5 0.5 0.5 0.5 0.5 0.5 0.5 0.5 0.5 0.5 0.5 0.5 0.5 0.5 0.5 0.5 0.5 0.5 0.5 0.5 0.5 0.5 0.5 0.5 0.5 0.5 0.5 0.5 0.5 0.9997949138638229 0.0002050861361771944 0.9998125234345707 0.0001874765654293213 0.9998183799491465 0.0001816200508536142 0.9998065764023211 0.0001934235976789168 0.9998076923076923 0.0001923076923076923 0.9998015873015873 0.0001984126984126984 0.9998130841121495 0.0001869158878504673 0.9998167827042873 0.0001832172957127153 0.9998055231427461 0.0001944768572539868 0.9998154981549815 0.0001845018450184502 0.5 0.5 0.5 0.5 0.5 0.5 0.5 0.5 0.5 0.5 0.5 0.5 0.5 0.5 0.5 0.5 0.5 0.5 0.5 0.5 0.5 0.5 0.5 0.5 0.5 0.5 0.5 0.5 0.5 0.5 0.5 0.5 0.5 0.5 0.5 0.5 0.5 0.5 0.5 0.5 0.5 0.5 0.5 0.5 0.5 0.5 0.5 0.5 0.5 0.5 0.5 0.5 0.5 0.5 0.5 0.5 0.5 0.5 0.5 0.5 0.5 0.5 0.5 0.5 0.5 0.5 0.5 0.5 0.5 0.5 0.5 0.5 0.5 0.5 0.5 0.5 0.5 0.5 0.5 0.5</probabilities>
		</cpt>
	</nodes>
	<extensions>
		<genie version="1.0" app="GeNIe 4.1.3724.0 ACADEMIC" name="Transaction_model_final">
			<node id="fraud">
				<name>fraud</name>
				<interior color="e5f6f7" />
				<outline color="000080" />
				<font color="000000" name="Arial" size="8" />
				<position>951 514 1023 562</position>
				<barchart active="true" width="128" height="64" />
			</node>
			<node id="sender_behavior">
				<name>sender_behavior</name>
				<interior color="e5f6f7" />
				<outline color="000080" />
				<font color="000000" name="Arial" size="8" />
				<position>737 570 809 618</position>
				<barchart active="true" width="128" height="108" />
			</node>
			<node id="receiver_behavior">
				<name>receiver_behavior</name>
				<interior color="e5f6f7" />
				<outline color="000080" />
				<font color="000000" name="Arial" size="8" />
				<position>693 173 765 221</position>
				<barchart active="true" width="128" height="108" />
			</node>
			<node id="discretized_tx">
				<name>discretized_tx</name>
				<interior color="e5f6f7" />
				<outline color="000080" />
				<font color="000000" name="Arial" size="8" />
				<position>736 429 808 477</position>
				<barchart active="true" width="128" height="108" />
			</node>
			<node id="discretize_sender_ratio">
				<name>discretize_sender_ratio</name>
				<interior color="e5f6f7" />
				<outline color="000080" />
				<font color="000000" name="Arial" size="8" />
				<position>145 396 259 459</position>
				<barchart active="true" width="128" height="72" />
			</node>
			<node id="discretize_receiver_ratio">
				<name>discretize_receiver_ratio</name>
				<interior color="e5f6f7" />
				<outline color="000080" />
				<font color="000000" name="Arial" size="8" />
				<position>671 70 788 133</position>
				<barchart active="true" width="128" height="72" />
			</node>
			<node id="timestamp_bin">
				<name>timestamp_bin</name>
				<interior color="e5f6f7" />
				<outline color="000080" />
				<font color="000000" name="Arial" size="8" />
				<position>93 597 165 645</position>
				<barchart active="true" width="128" height="198" />
			</node>
			<textbox>
				<caption>Input file: txdata\nData rows: 1048575\nElapsed time: 203.015s\n\nLearning algorithm: Bayesian Search\nAlgorithm parameters:\nIterations: 20\nMax parent count: 7\nSample size: 100\nLink probability: 0.5\nPrior link probability: 0.005\nSeed: 0\nMax search time: 0\nScore by accuracy (5-fold), class variable: fraud\nBackground knowledge was provided:\n  nodes assigned to tiers: 7\n\nBest accuracy in iteration 13: 0.99977 (1048334/1048575)\nEM Log Likelihood: -6.20224e+06</caption>
				<font color="000000" name="Arial" size="8" />
				<position>4 78 285 344</position>
			</textbox>
			<arcformat parent="sender_behavior" child="fraud" width="5" color="000080" />
			<arcformat parent="discretized_tx" child="fraud" width="5" color="000080" />
		</genie>
	</extensions>
</smile>
